<?xml version="1.0" encoding="utf-8"?>
<Root>
  <ActivationFunctions>
    <Fn id="0" name="LeakyReLU" prob="1" />
  </ActivationFunctions>
  <Networks>
    <Network id="165676" birthGen="686" fitness="1061.1443675132714">
      <Nodes>
        <Node type="bias" id="0" />
        <Node type="in" id="1" />
        <Node type="in" id="2" />
        <Node type="in" id="3" />
        <Node type="in" id="4" />
        <Node type="in" id="5" />
        <Node type="in" id="6" />
        <Node type="out" id="7" />
        <Node type="hid" id="21" />
        <Node type="hid" id="34" />
        <Node type="hid" id="37" />
        <Node type="hid" id="125" />
        <Node type="hid" id="129" />
        <Node type="hid" id="159" />
        <Node type="hid" id="199" />
        <Node type="hid" id="224" />
        <Node type="hid" id="242" />
        <Node type="hid" id="500" />
        <Node type="hid" id="523" />
        <Node type="hid" id="536" />
        <Node type="hid" id="672" />
        <Node type="hid" id="677" />
        <Node type="hid" id="723" />
        <Node type="hid" id="856" />
        <Node type="hid" id="871" />
      </Nodes>
      <Connections>
        <Con id="15" src="3" tgt="7" wght="0.34733049120604792" />
        <Con id="16" src="4" tgt="7" wght="-0.21958193985007646" />
        <Con id="19" src="6" tgt="7" wght="-0.017296366778123209" />
        <Con id="20" src="0" tgt="7" wght="-0.24757582285827603" />
        <Con id="22" src="5" tgt="21" wght="0.91558564588231217" />
        <Con id="23" src="21" tgt="7" wght="0.77041421958935152" />
        <Con id="35" src="4" tgt="34" wght="-1.6214933207698883" />
        <Con id="36" src="34" tgt="7" wght="5" />
        <Con id="38" src="6" tgt="37" wght="0.178730794130701" />
        <Con id="39" src="37" tgt="7" wght="5" />
        <Con id="41" src="1" tgt="37" wght="-0.10777416582119864" />
        <Con id="45" src="3" tgt="37" wght="-0.052067719163334442" />
        <Con id="64" src="2" tgt="37" wght="0.1545680096856574" />
        <Con id="96" src="3" tgt="21" wght="-0.14226604123365261" />
        <Con id="98" src="1" tgt="21" wght="-1.5459986060695587" />
        <Con id="126" src="1" tgt="125" wght="-0.10123491999849935" />
        <Con id="131" src="129" tgt="7" wght="4.9606200232291835" />
        <Con id="139" src="6" tgt="21" wght="0.098781913927132467" />
        <Con id="146" src="6" tgt="129" wght="-2.6615590453353022" />
        <Con id="157" src="21" tgt="37" wght="-1.2952719398127568" />
        <Con id="160" src="4" tgt="159" wght="0.065921760050788564" />
        <Con id="161" src="159" tgt="37" wght="4.0314859087386" />
        <Con id="201" src="199" tgt="7" wght="4.9915043070522174" />
        <Con id="225" src="6" tgt="224" wght="-0.074404761829416979" />
        <Con id="226" src="224" tgt="37" wght="4.9866387296486305" />
        <Con id="243" src="5" tgt="242" wght="-0.010442563419704258" />
        <Con id="244" src="242" tgt="199" wght="-0.2909677920273146" />
        <Con id="258" src="159" tgt="21" wght="3.2841836449286568" />
        <Con id="281" src="2" tgt="159" wght="-0.061958403157589353" />
        <Con id="483" src="6" tgt="125" wght="-4.6299935140620878" />
        <Con id="501" src="1" tgt="500" wght="-0.19069473300901535" />
        <Con id="502" src="500" tgt="125" wght="4.9998024953582085" />
        <Con id="503" src="21" tgt="500" wght="-4.33131764579583" />
        <Con id="504" src="0" tgt="125" wght="0.0088682119492836387" />
        <Con id="524" src="125" tgt="523" wght="4.9945608029129076" />
        <Con id="525" src="523" tgt="7" wght="5" />
        <Con id="537" src="2" tgt="536" wght="0.074509173903036782" />
        <Con id="538" src="536" tgt="21" wght="5" />
        <Con id="545" src="536" tgt="37" wght="0.04970100166054283" />
        <Con id="561" src="159" tgt="125" wght="-0.042723832768105596" />
        <Con id="563" src="1" tgt="536" wght="0.010733013125935378" />
        <Con id="606" src="125" tgt="129" wght="1.3660218319525927" />
        <Con id="673" src="224" tgt="672" wght="-1.2322980227104205" />
        <Con id="674" src="672" tgt="199" wght="5" />
        <Con id="702" src="500" tgt="129" wght="0.031247191100854034" />
        <Con id="724" src="677" tgt="723" wght="5" />
        <Con id="725" src="723" tgt="536" wght="5" />
        <Con id="857" src="37" tgt="856" wght="0.041516923717401517" />
        <Con id="872" src="856" tgt="871" wght="5" />
        <Con id="873" src="871" tgt="125" wght="4.9848995908643339" />
        <Con id="942" src="3" tgt="723" wght="-0.86207654404183109" />
        <Con id="959" src="21" tgt="871" wght="-4.3726430793733879" />
        <Con id="1059" src="672" tgt="723" wght="-4.127767933663641" />
      </Connections>
    </Network>
  </Networks>
</Root>